// Automatically generated from Python

#ifndef MODEL_DATA_H
#define MODEL_DATA_H

const char* GESTURE_LABELS[] = {
  "circle",
  "shake",
  "tap",
  "wave",
};

// Feature scaling parameters
const float FEATURE_MEANS[] = {-0.249738f, 0.314873f, 0.223000f, -0.748000f, -0.489437f, -0.009437f, -0.046287f, 0.843860f, 1.140000f, -1.293250f, -0.728500f, 0.652250f, 0.609962f, 0.460505f, 1.278750f, -0.164750f, 0.296063f, 0.965562f, -4.202150f, 52.541098f, 86.276750f, -89.204500f, -35.217188f, 26.285688f, 21.358750f, 56.230682f, 110.386250f, -62.347000f, -21.933250f, 63.092250f, -8.545475f, 124.239593f, 169.705750f, -186.831500f, -109.202687f, 99.788750f, };

const float FEATURE_SCALES[] = {0.526464f, 0.319056f, 0.743728f, 0.649481f, 0.538506f, 0.643752f, 0.619225f, 1.045245f, 1.557984f, 1.538212f, 1.078064f, 1.215406f, 0.389140f, 0.527754f, 0.860439f, 0.945844f, 0.521232f, 0.667204f, 46.951049f, 53.604203f, 111.338125f, 106.262152f, 59.768343f, 55.623356f, 42.034155f, 55.264079f, 120.904753f, 72.821736f, 58.133390f, 67.675434f, 174.411657f, 130.264106f, 254.422212f, 218.674397f, 213.105477f, 215.852232f, };

// Model weights

// fc1.weight
const float fc1_weight[] = {
  -0.086443f, 0.061429f, 0.033446f, -0.030059f, -0.073608f, -0.043354f, -0.002523f, 0.105313f, 
  -0.024587f, 0.006595f, 0.059725f, 0.019520f, -0.007097f, 0.052864f, 0.000291f, 0.102731f, 
  0.165780f, -0.038705f, 0.149353f, -0.018670f, -0.082194f, 0.033401f, -0.092016f, -0.043737f, 
  0.092651f, 0.094948f, -0.064012f, -0.086744f, -0.133367f, -0.151594f, 0.175965f, -0.136201f, 
  0.001691f, -0.100387f, -0.053472f, 0.031909f, 0.214607f, -0.202429f, -0.030200f, 0.054596f, 
  0.250673f, 0.130564f, -0.143417f, -0.107537f, 0.070027f, -0.076554f, 0.036561f, 0.082545f, 
  0.280787f, -0.178370f, 0.016514f, -0.081934f, 0.173919f, -0.039544f, -0.101566f, 0.013324f, 
  0.052806f, 0.140402f, 0.014294f, -0.057987f, -0.135800f, 0.077763f, -0.160467f, -0.011404f, 
  0.194103f, -0.112323f, 0.140366f, -0.043906f, -0.026096f, -0.024512f, -0.104525f, -0.029324f, 
  0.156536f, 0.078907f, 0.128162f, -0.009094f, 0.251522f, -0.041871f, -0.222637f, -0.052863f, 
  -0.250964f, 0.020192f, -0.033635f, -0.082048f, -0.002860f, 0.097765f, -0.055970f, -0.006422f, 
  -0.164381f, 0.022413f, 0.155578f, 0.043702f, 0.226408f, -0.228294f, -0.040434f, 0.034140f, 
  0.014709f, 0.221904f, 0.134534f, -0.067272f, -0.055111f, -0.064254f, 0.238072f, 0.098546f, 
  0.016360f, -0.019317f, 0.079710f, 0.262586f, 0.120188f, -0.146896f, 0.015923f, 0.129380f, 
  0.163004f, -0.151945f, -0.067944f, -0.211966f, -0.005744f, 0.195917f, 0.080995f, -0.138630f, 
  0.084912f, 0.030226f, 0.090415f, -0.040165f, -0.046550f, -0.022464f, 0.047097f, -0.194640f, 
  -0.219592f, 0.027435f, -0.089537f, -0.232274f, 0.112507f, 0.033258f, -0.056910f, 0.140697f, 
  0.039468f, 0.170077f, 0.001640f, -0.089850f, -0.032030f, -0.053786f, 0.151070f, 0.027022f, 
  -0.081761f, 0.047238f, -0.094517f, -0.096821f, 0.017312f, 0.018110f, -0.089916f, -0.109323f, 
  0.159508f, -0.075111f, -0.061661f, 0.084785f, 0.176636f, -0.085666f, -0.037590f, -0.013474f, 
  -0.080146f, 0.019903f, 0.016504f, -0.130006f, -0.157923f, -0.096604f, -0.132562f, -0.017326f, 
  -0.126091f, 0.106963f, 0.136735f, 0.071691f, 0.005176f, 0.170514f, 0.113739f, 0.159115f, 
  -0.037980f, -0.051640f, -0.101945f, 0.194286f, 0.002976f, -0.169639f, 0.146533f, 0.000183f, 
  0.226022f, 0.099240f, -0.077326f, 0.041844f, -0.194176f, -0.094238f, 0.044453f, -0.180967f, 
  0.045486f, 0.019016f, 0.044205f, 0.002146f, 0.221955f, -0.090436f, -0.184972f, 0.036808f, 
  -0.024442f, -0.047480f, 0.057240f, -0.036407f, -0.143453f, -0.075258f, 0.027327f, 0.069890f, 
  0.189125f, -0.033436f, -0.228409f, 0.046272f, -0.036069f, 0.150086f, 0.155096f, 0.036524f, 
  -0.037206f, 0.099425f, 0.169645f, 0.104861f, -0.028219f, 0.038618f, -0.107617f, 0.068943f, 
  0.129256f, -0.226517f, -0.005754f, 0.076772f, -0.220235f, -0.112218f, 0.041598f, -0.052658f, 
  -0.189880f, -0.104721f, 0.230937f, -0.046852f, 0.040556f, 0.159505f, 0.090148f, 0.163385f, 
  -0.107824f, 0.183289f, 0.104112f, -0.183473f, -0.007273f, -0.110944f, 0.192184f, 0.018616f, 
  -0.018487f, -0.238844f, -0.167701f, 0.221330f, -0.034274f, -0.103441f, -0.008666f, -0.022929f, 
  0.043065f, -0.223085f, 0.153315f, 0.033060f, 0.149961f, 0.192412f, -0.001611f, -0.138413f, 
  -0.174245f, -0.014874f, -0.214947f, -0.176029f, 0.039938f, -0.023398f, 0.041015f, -0.052480f, 
  0.022297f, -0.074972f, 0.115516f, 0.189810f, -0.214610f, -0.218881f, -0.152845f, -0.024424f, 
  -0.150932f, -0.257355f, 0.035546f, -0.051800f, 0.104728f, -0.127955f, -0.007060f, 0.194249f, 
  -0.032970f, 0.036765f, 0.043775f, -0.181325f, 0.039579f, 0.035537f, -0.010312f, 0.094615f, 
  -0.016233f, -0.076872f, -0.050579f, 0.085145f, 0.108550f, -0.005436f, 0.138406f, -0.229202f, 
  -0.122155f, 0.172322f, 0.121046f, 0.076660f, 0.066147f, -0.110206f, 0.096216f, -0.185268f, 
  -0.141757f, -0.085943f, -0.049965f, 0.013200f, -0.042119f, 0.172174f, 0.022187f, 0.151097f, 
  0.095961f, -0.031292f, -0.073078f, 0.091468f, 0.111150f, -0.046077f, -0.027854f, -0.182602f, 
  -0.148784f, 0.197097f, -0.052787f, 0.116119f, 0.132062f, 0.045040f, -0.075322f, 0.160707f, 
  0.194729f, 0.145997f, -0.010558f, 0.014243f, -0.079023f, 0.198822f, 0.035023f, -0.085123f, 
  -0.008617f, 0.002268f, -0.196244f, 0.024959f, -0.012303f, -0.033936f, -0.070163f, -0.100789f, 
  0.051335f, 0.118268f, 0.020317f, 0.162366f, 0.136340f, -0.011788f, -0.140389f, 0.046869f, 
  -0.053097f, 0.124311f, -0.061974f, -0.105088f, 0.078340f, -0.104428f, 0.159427f, 0.083905f, 
  0.091461f, -0.000417f, -0.201354f, 0.007625f, 0.195267f, 0.204685f, 0.150098f, -0.007873f, 
  -0.078572f, -0.098321f, -0.023733f, -0.047025f, 0.228463f, -0.021274f, -0.139324f, -0.193358f, 
  0.082930f, 0.169808f, -0.047510f, 0.084277f, -0.050382f, 0.221539f, -0.038916f, 0.199198f, 
  0.027994f, -0.021808f, -0.014751f, -0.114057f, 0.062470f, -0.085939f, 0.202940f, 0.050204f, 
  -0.040621f, 0.065586f, -0.165780f, 0.071113f, 0.191335f, 0.093068f, -0.188048f, 0.153401f, 
  -0.036953f, 0.038511f, -0.036901f, -0.044873f, -0.080389f, -0.156012f, -0.194457f, 0.146517f, 
  -0.180809f, -0.028677f, -0.077857f, 0.007337f, -0.080954f, -0.106075f, -0.172102f, -0.005417f, 
  -0.256950f, -0.119009f, -0.199385f, 0.208436f, -0.009086f, 0.037931f, -0.133732f, -0.123794f, 
  -0.235441f, -0.095020f, 0.052103f, -0.189548f, 0.021579f, 0.138949f, -0.024086f, 0.127467f, 
  0.005441f, -0.112632f, 0.019491f, 0.076581f, 0.225861f, 0.060150f, 0.206124f, 0.026791f, 
  -0.123784f, 0.070871f, -0.115857f, -0.120674f, -0.127017f, 0.068191f, 0.021596f, 0.233456f, 
  -0.020444f, 0.133998f, 0.143238f, -0.149660f, -0.135039f, 0.134520f, -0.018165f, 0.174215f, 
  -0.021141f, -0.045252f, -0.084291f, 0.036447f, -0.184168f, 0.019395f, 0.030484f, -0.135080f, 
  0.026574f, -0.125055f, 0.257131f, 0.128383f, 0.032567f, 0.022659f, 0.143576f, 0.084833f, 
  0.038017f, -0.164969f, -0.029732f, 0.153531f, 0.143627f, -0.000380f, 0.177886f, -0.006447f, 
  0.092645f, 0.050161f, 0.157508f, 0.063597f, -0.037427f, -0.005478f, 0.092182f, -0.160350f, 
  -0.167099f, 0.021632f, -0.030244f, -0.029955f, -0.106537f, 0.037060f, 0.001563f, 0.086786f, 
  -0.181396f, 0.169414f, 0.208766f, 0.073412f, -0.153599f, 0.096779f, 0.038050f, -0.011734f, 
  -0.005952f, -0.092700f, 0.116116f, 0.187288f, 0.194114f, 0.071033f, -0.070050f, -0.209896f, 
  -0.094423f, 0.076973f, 0.049077f, 0.016827f, -0.089568f, 0.025858f, -0.144556f, 0.175657f, 
  -0.114095f, 0.019253f, 0.019925f, 0.018736f, 0.070005f, 0.035128f, 0.001815f, 0.056793f, 
  0.156420f, -0.107172f, -0.073610f, 0.071538f, -0.055547f, 0.132913f, 0.079199f, -0.022989f, 
  -0.197070f, 0.031986f, -0.086860f, 0.000102f, -0.079971f, -0.156827f, 0.043354f, 0.142835f, 
  0.114929f, 0.040547f, -0.122909f, 0.048283f, -0.153274f, -0.029309f, 0.044338f, -0.161130f, 
  -0.077845f, -0.098146f, -0.147271f, 0.081597f, -0.139827f, 0.187214f, 0.182551f, -0.156367f, 
  -0.064877f, 0.159819f, -0.122665f, -0.105049f, -0.048591f, -0.026393f, 0.015963f, 0.203310f, 
};

// fc1.bias
const float fc1_bias[] = {
  -0.148577f, 0.210338f, 0.062430f, 0.028097f, -0.112107f, 0.206137f, 0.085132f, 0.161633f, 
  0.140861f, 0.175722f, 0.100328f, 0.060315f, 0.033540f, -0.124431f, 0.023019f, 0.133255f, 
};

// fc2.weight
const float fc2_weight[] = {
  0.217328f, -0.090277f, -0.071547f, 0.176530f, -0.247231f, -0.109023f, -0.304635f, 0.131100f, 
  0.040710f, -0.095855f, -0.129003f, -0.171439f, 0.171401f, 0.150639f, -0.287858f, -0.003505f, 
  0.061987f, -0.223244f, 0.048746f, -0.266784f, -0.000569f, -0.274193f, 0.113735f, -0.238425f, 
  0.281973f, 0.126482f, 0.089141f, 0.112979f, 0.300767f, -0.168712f, 0.089581f, 0.287851f, 
  0.109852f, 0.106381f, 0.074160f, 0.216065f, 0.057743f, 0.273073f, -0.239859f, -0.085791f, 
  -0.029895f, -0.253831f, 0.169980f, -0.079576f, -0.131063f, -0.227043f, -0.049904f, -0.217985f, 
  0.062716f, -0.062455f, 0.256983f, -0.221721f, -0.234926f, -0.039602f, 0.033170f, 0.246230f, 
  0.070311f, -0.197173f, -0.266041f, 0.296481f, -0.023914f, -0.032157f, -0.088326f, -0.152355f, 
};

// fc2.bias
const float fc2_bias[] = {
  0.109852f, -0.045086f, 0.119844f, -0.068787f, 
};

#endif  // MODEL_DATA_H
